10 30
1 0.13386992 -0.2528739 -0.074153006 -0.041046612 0.020377282 -0.110581 0.20931962 0.39115307 0.18830554 -0.16441604 0.0648536 0.25428557 0.038983867 -0.4947741 0.15286213 -0.5763037 0.093331926 -0.23194027 0.12858117 0.13309997 0.08371529 0.10096485 -0.055882163 0.053472485 0.26172435 -0.029703043 -0.31245843 0.10772285 0.19558623 0.08204897
0 -0.042731393 -0.17908862 -0.19307686 0.035401247 0.17710298 -0.08202167 0.17418638 0.18429054 0.23711717 -0.23412958 0.3834117 0.2646249 -0.117498666 -0.36203554 0.14551534 -0.4531304 -0.03322583 -0.2818634 -0.03312353 0.09202888 -0.12538612 0.19073519 -0.12462125 -0.02498344 0.17677984 -0.09932963 -0.15155654 -0.30002522 0.08824697 0.13210672
3 0.0325157 -0.19041558 -0.14842875 0.024795532 0.12633142 -0.0920899 0.20711371 0.2511479 0.2017048 -0.21361414 0.25044882 0.24962111 -0.07753839 -0.4156591 0.1347483 -0.49261257 0.009205799 -0.26471773 0.021279436 0.104844496 -0.040350463 0.1694904 -0.10219406 0.027177233 0.23307782 -0.08851934 -0.22296226 -0.12968133 0.14838906 0.1361544
2 0.12613301 -0.24213587 -0.11717728 -0.022097096 0.043052625 -0.08913168 0.23066327 0.33814192 0.17814663 -0.18138681 0.121468626 0.26680243 -0.004462453 -0.47524303 0.15772341 -0.5603987 0.04781241 -0.22994722 0.07900832 0.12424605 0.04316208 0.13212343 -0.060056657 0.04758101 0.23739947 -0.06130646 -0.2925985 0.011921815 0.17604487 0.11259607
5 0.002135457 -0.20314123 -0.21350338 0.038519345 0.18307714 -0.0990567 0.2174336 0.1773698 0.26035297 -0.23428851 0.31456065 0.279897 -0.11695453 -0.35895306 0.13797045 -0.4639681 -0.058561485 -0.2718347 -0.01596625 0.11064605 -0.060198657 0.21469562 -0.12230312 0.016896088 0.2043722 -0.11059447 -0.1792168 -0.25209367 0.100418754 0.13539797
4 0.08307194 -0.20109299 -0.1333225 0.0074826665 0.08982107 -0.105092004 0.19139603 0.32933432 0.20671889 -0.204962 0.20377725 0.27040812 -0.016945018 -0.45393157 0.15119694 -0.5372261 0.040155757 -0.26090503 0.06667539 0.13936965 0.011915054 0.13925812 -0.096250184 0.014898863 0.24693726 -0.055775724 -0.27882612 -0.042002216 0.17231451 0.106704414
7 0.15173066 -0.24529774 -0.13097063 -0.024089588 0.026814573 -0.08150025 0.24194402 0.3322836 0.20408909 -0.17989524 0.08885618 0.2642755 -0.006415523 -0.48084435 0.17186294 -0.55343163 0.05847277 -0.23267101 0.076889284 0.13307089 0.07060858 0.12538083 -0.0685694 0.07963136 0.27029657 -0.07017636 -0.31703493 0.033618383 0.16240922 0.09944493
6 -0.035912503 -0.16710563 -0.19851993 0.07208621 0.20032245 -0.08906969 0.18517497 0.18066064 0.2462817 -0.23352802 0.37743816 0.2597911 -0.13097665 -0.34747124 0.13782676 -0.4303797 -0.057198916 -0.28967917 -0.020076403 0.09356467 -0.11474232 0.19510056 -0.13653013 -0.038756195 0.20350961 -0.105925135 -0.14735985 -0.30616188 0.09608846 0.15410002
9 -0.011650293 -0.1989196 -0.20035653 0.02556115 0.16169716 -0.091325946 0.19927853 0.20564176 0.2576462 -0.21992262 0.30665258 0.2801262 -0.10252471 -0.38347027 0.13157052 -0.46602404 -0.04491743 -0.24817462 -0.012451305 0.10750994 -0.092277795 0.21095845 -0.08921232 -0.020665104 0.18622252 -0.079253644 -0.17960085 -0.24884607 0.09729329 0.14482096
8 0.042713527 -0.2260307 -0.1511416 0.016659172 0.11400783 -0.09200399 0.2201236 0.25508994 0.22002949 -0.19755825 0.22970858 0.26631197 -0.078205764 -0.41050902 0.15168808 -0.51196784 0.00617553 -0.25404146 0.043421265 0.12401939 -0.031988237 0.1760997 -0.09665599 0.007412999 0.22399318 -0.06420515 -0.2237847 -0.12063284 0.13045895 0.13676472
